digraph Tree {
node [shape=box, style="filled, rounded", color="black", fontname="helvetica"] ;
edge [fontname="helvetica"] ;
0 [label="year <= 0.88\nsquared_error = 0.01\nsamples = 180494\nvalue = 0.13", fillcolor="#fcefe6"] ;
1 [label="year <= 0.81\n0.0\n104258\n0.08", fillcolor="#fdf5f0"] ;
0 -> 1 [labeldistance=2.5, labelangle=45, headlabel="True"] ;
2 [label="odometer <= 0.22\n0.0\n58941\n0.06", fillcolor="#fef8f4"] ;
1 -> 2 ;
3 [label="year <= 0.2\n0.01\n9862\n0.1", fillcolor="#fcf3ec"] ;
2 -> 3 ;
4 [label="(...)", fillcolor="#C0C0C0"] ;
3 -> 4 ;
1649 [label="(...)", fillcolor="#C0C0C0"] ;
3 -> 1649 ;
15268 [label="fuel_gas <= 0.5\n0.0\n49079\n0.05", fillcolor="#fef9f5"] ;
2 -> 15268 ;
15269 [label="(...)", fillcolor="#C0C0C0"] ;
15268 -> 15269 ;
21634 [label="(...)", fillcolor="#C0C0C0"] ;
15268 -> 21634 ;
94835 [label="cylinders_8 cylinders <= 0.5\n0.0\n45317\n0.11", fillcolor="#fcf2ea"] ;
1 -> 94835 ;
94836 [label="fuel_gas <= 0.5\n0.0\n38205\n0.09", fillcolor="#fdf3ec"] ;
94835 -> 94836 ;
94837 [label="(...)", fillcolor="#C0C0C0"] ;
94836 -> 94837 ;
100036 [label="(...)", fillcolor="#C0C0C0"] ;
94836 -> 100036 ;
148131 [label="odometer <= 0.22\n0.0\n7112\n0.16", fillcolor="#fbeadf"] ;
94835 -> 148131 ;
148132 [label="(...)", fillcolor="#C0C0C0"] ;
148131 -> 148132 ;
150341 [label="(...)", fillcolor="#C0C0C0"] ;
148131 -> 150341 ;
156124 [label="drive_fwd <= 0.5\n0.01\n76236\n0.19", fillcolor="#fae7d9"] ;
0 -> 156124 [labeldistance=2.5, labelangle=-45, headlabel="False"] ;
156125 [label="fuel_gas <= 0.5\n0.01\n47568\n0.22", fillcolor="#f9e4d4"] ;
156124 -> 156125 ;
156126 [label="condition_good <= 0.5\n0.01\n10050\n0.27", fillcolor="#f8ddc9"] ;
156125 -> 156126 ;
156127 [label="(...)", fillcolor="#C0C0C0"] ;
156126 -> 156127 ;
161612 [label="(...)", fillcolor="#C0C0C0"] ;
156126 -> 161612 ;
164705 [label="odometer <= 0.09\n0.01\n37518\n0.2", fillcolor="#fae6d7"] ;
156125 -> 164705 ;
164706 [label="(...)", fillcolor="#C0C0C0"] ;
164705 -> 164706 ;
183165 [label="(...)", fillcolor="#C0C0C0"] ;
164705 -> 183165 ;
208134 [label="odometer <= 0.09\n0.01\n28668\n0.15", fillcolor="#fbede2"] ;
156124 -> 208134 ;
208135 [label="cylinders_4 cylinders <= 0.5\n0.0\n13687\n0.18", fillcolor="#fae9dc"] ;
208134 -> 208135 ;
208136 [label="(...)", fillcolor="#C0C0C0"] ;
208135 -> 208136 ;
218145 [label="(...)", fillcolor="#C0C0C0"] ;
208135 -> 218145 ;
221466 [label="cylinders_4 cylinders <= 0.5\n0.0\n14981\n0.12", fillcolor="#fcf0e7"] ;
208134 -> 221466 ;
221467 [label="(...)", fillcolor="#C0C0C0"] ;
221466 -> 221467 ;
233504 [label="(...)", fillcolor="#C0C0C0"] ;
221466 -> 233504 ;
}